digraph Tree {
node [shape=box, style="filled, rounded", color="black", fontname="helvetica"] ;
edge [fontname="helvetica"] ;
0 [label=<spread1 &le; -0.94<br/>gini = 0.362<br/>samples = 156<br/>value = [37, 119]<br/>class = Class 1>, fillcolor="#77bbed"] ;
1 [label=<Shimmer:APQ5 &le; -0.936<br/>gini = 0.383<br/>samples = 31<br/>value = [23, 8]<br/>class = Class 0>, fillcolor="#eead7e"] ;
0 -> 1 [labeldistance=2.5, labelangle=45, headlabel="True"] ;
2 [label=<MDVP:Shimmer(dB) &le; -1.005<br/>gini = 0.278<br/>samples = 6<br/>value = [1, 5]<br/>class = Class 1>, fillcolor="#61b1ea"] ;
1 -> 2 ;
3 [label=<gini = 0.0<br/>samples = 1<br/>value = [1, 0]<br/>class = Class 0>, fillcolor="#e58139"] ;
2 -> 3 ;
4 [label=<gini = 0.0<br/>samples = 5<br/>value = [0, 5]<br/>class = Class 1>, fillcolor="#399de5"] ;
2 -> 4 ;
5 [label=<D2 &le; 1.081<br/>gini = 0.211<br/>samples = 25<br/>value = [22, 3]<br/>class = Class 0>, fillcolor="#e99254"] ;
1 -> 5 ;
6 [label=<HNR &le; 0.972<br/>gini = 0.153<br/>samples = 24<br/>value = [22, 2]<br/>class = Class 0>, fillcolor="#e78c4b"] ;
5 -> 6 ;
7 [label=<gini = 0.0<br/>samples = 19<br/>value = [19, 0]<br/>class = Class 0>, fillcolor="#e58139"] ;
6 -> 7 ;
8 [label=<Shimmer:APQ5 &le; -0.84<br/>gini = 0.48<br/>samples = 5<br/>value = [3, 2]<br/>class = Class 0>, fillcolor="#f6d5bd"] ;
6 -> 8 ;
9 [label=<gini = 0.0<br/>samples = 3<br/>value = [3, 0]<br/>class = Class 0>, fillcolor="#e58139"] ;
8 -> 9 ;
10 [label=<gini = 0.0<br/>samples = 2<br/>value = [0, 2]<br/>class = Class 1>, fillcolor="#399de5"] ;
8 -> 10 ;
11 [label=<gini = 0.0<br/>samples = 1<br/>value = [0, 1]<br/>class = Class 1>, fillcolor="#399de5"] ;
5 -> 11 ;
12 [label=<MDVP:Shimmer(dB) &le; -0.495<br/>gini = 0.199<br/>samples = 125<br/>value = [14, 111]<br/>class = Class 1>, fillcolor="#52a9e8"] ;
0 -> 12 [labeldistance=2.5, labelangle=-45, headlabel="False"] ;
13 [label=<MDVP:Fo(Hz) &le; -0.844<br/>gini = 0.42<br/>samples = 40<br/>value = [12, 28]<br/>class = Class 1>, fillcolor="#8ec7f0"] ;
12 -> 13 ;
14 [label=<NHR &le; -0.583<br/>gini = 0.18<br/>samples = 10<br/>value = [9, 1]<br/>class = Class 0>, fillcolor="#e88f4f"] ;
13 -> 14 ;
15 [label=<gini = 0.0<br/>samples = 1<br/>value = [0, 1]<br/>class = Class 1>, fillcolor="#399de5"] ;
14 -> 15 ;
16 [label=<gini = 0.0<br/>samples = 9<br/>value = [9, 0]<br/>class = Class 0>, fillcolor="#e58139"] ;
14 -> 16 ;
17 [label=<MDVP:Shimmer(dB) &le; -0.51<br/>gini = 0.18<br/>samples = 30<br/>value = [3, 27]<br/>class = Class 1>, fillcolor="#4fa8e8"] ;
13 -> 17 ;
18 [label=<PPE &le; -0.896<br/>gini = 0.071<br/>samples = 27<br/>value = [1, 26]<br/>class = Class 1>, fillcolor="#41a1e6"] ;
17 -> 18 ;
19 [label=<spread2 &le; 0.312<br/>gini = 0.5<br/>samples = 2<br/>value = [1, 1]<br/>class = Class 0>, fillcolor="#ffffff"] ;
18 -> 19 ;
20 [label=<gini = 0.0<br/>samples = 1<br/>value = [0, 1]<br/>class = Class 1>, fillcolor="#399de5"] ;
19 -> 20 ;
21 [label=<gini = 0.0<br/>samples = 1<br/>value = [1, 0]<br/>class = Class 0>, fillcolor="#e58139"] ;
19 -> 21 ;
22 [label=<gini = 0.0<br/>samples = 25<br/>value = [0, 25]<br/>class = Class 1>, fillcolor="#399de5"] ;
18 -> 22 ;
23 [label=<spread1 &le; -0.297<br/>gini = 0.444<br/>samples = 3<br/>value = [2, 1]<br/>class = Class 0>, fillcolor="#f2c09c"] ;
17 -> 23 ;
24 [label=<gini = 0.0<br/>samples = 1<br/>value = [0, 1]<br/>class = Class 1>, fillcolor="#399de5"] ;
23 -> 24 ;
25 [label=<gini = 0.0<br/>samples = 2<br/>value = [2, 0]<br/>class = Class 0>, fillcolor="#e58139"] ;
23 -> 25 ;
26 [label=<PPE &le; -0.812<br/>gini = 0.046<br/>samples = 85<br/>value = [2, 83]<br/>class = Class 1>, fillcolor="#3e9fe6"] ;
12 -> 26 ;
27 [label=<gini = 0.0<br/>samples = 1<br/>value = [1, 0]<br/>class = Class 0>, fillcolor="#e58139"] ;
26 -> 27 ;
28 [label=<MDVP:Fo(Hz) &le; 1.404<br/>gini = 0.024<br/>samples = 84<br/>value = [1, 83]<br/>class = Class 1>, fillcolor="#3b9ee5"] ;
26 -> 28 ;
29 [label=<gini = 0.0<br/>samples = 82<br/>value = [0, 82]<br/>class = Class 1>, fillcolor="#399de5"] ;
28 -> 29 ;
30 [label=<D2 &le; 1.09<br/>gini = 0.5<br/>samples = 2<br/>value = [1, 1]<br/>class = Class 0>, fillcolor="#ffffff"] ;
28 -> 30 ;
31 [label=<gini = 0.0<br/>samples = 1<br/>value = [1, 0]<br/>class = Class 0>, fillcolor="#e58139"] ;
30 -> 31 ;
32 [label=<gini = 0.0<br/>samples = 1<br/>value = [0, 1]<br/>class = Class 1>, fillcolor="#399de5"] ;
30 -> 32 ;
}